Language model created by QuickLM on Tue Mar  7 13:26:21 EST 2017
Copyright (c) 1996-2010 Carnegie Mellon University and Alexander I. Rudnicky

The model is in standard ARPA format, designed by Doug Paul while he was at MITRE.

The code that was used to produce this language model is available in Open Source.
Please visit http://www.speech.cs.cmu.edu/tools/ for more information

The (fixed) discount mass is 0.5. The backoffs are computed using the ratio method.
This model based on a corpus of 17 sentences and 20 words

\data\
ngram 1=20
ngram 2=35
ngram 3=38

\1-grams:
-1.0200 </s> -0.3010
-1.0200 <s> -0.2574
-2.2504 BACK -0.2574
-1.9494 BRIGHTNESS -0.2861
-1.7733 DOWN -0.2574
-1.0200 ERGO -0.2574
-2.2504 EXIT -0.2574
-2.2504 FAST -0.2986
-2.2504 FORWARD -0.2574
-2.2504 LEFT -0.2574
-2.2504 MUTE -0.2574
-2.2504 OKAY -0.2574
-2.2504 PLAY -0.2574
-2.2504 POWER -0.2574
-1.0463 PROJECTOR -0.2493
-2.2504 REWIND -0.2574
-2.2504 RIGHT -0.2574
-1.7733 UP -0.2574
-1.9494 VOLUME -0.2861
-2.2504 ZOOM -0.2574

\2-grams:
-0.3010 <s> ERGO 0.0000
-0.3010 BACK </s> -0.3010
-0.6021 BRIGHTNESS DOWN 0.0000
-0.6021 BRIGHTNESS UP 0.0000
-0.3010 DOWN </s> -0.3010
-1.5315 ERGO EXIT 0.0000
-0.3274 ERGO PROJECTOR 0.0000
-0.3010 EXIT </s> -0.3010
-0.3010 FAST FORWARD 0.0000
-0.3010 FORWARD </s> -0.3010
-0.3010 LEFT </s> -0.3010
-0.3010 MUTE </s> -0.3010
-0.3010 OKAY </s> -0.3010
-0.3010 PLAY </s> -0.3010
-0.3010 POWER </s> -0.3010
-1.5051 PROJECTOR BACK 0.0000
-1.2041 PROJECTOR BRIGHTNESS 0.0000
-1.5051 PROJECTOR DOWN 0.0000
-1.5051 PROJECTOR FAST 0.0000
-1.5051 PROJECTOR LEFT 0.0000
-1.5051 PROJECTOR MUTE 0.0000
-1.5051 PROJECTOR OKAY 0.0000
-1.5051 PROJECTOR PLAY 0.0000
-1.5051 PROJECTOR POWER 0.0000
-1.5051 PROJECTOR REWIND 0.0000
-1.5051 PROJECTOR RIGHT 0.0000
-1.5051 PROJECTOR UP 0.0000
-1.2041 PROJECTOR VOLUME 0.0000
-1.5051 PROJECTOR ZOOM 0.0000
-0.3010 REWIND </s> -0.3010
-0.3010 RIGHT </s> -0.3010
-0.3010 UP </s> -0.3010
-0.6021 VOLUME DOWN 0.0000
-0.6021 VOLUME UP 0.0000
-0.3010 ZOOM </s> -0.3010

\3-grams:
-1.5315 <s> ERGO EXIT
-0.3274 <s> ERGO PROJECTOR
-0.3010 BRIGHTNESS DOWN </s>
-0.3010 BRIGHTNESS UP </s>
-0.3010 ERGO EXIT </s>
-1.5051 ERGO PROJECTOR BACK
-1.2041 ERGO PROJECTOR BRIGHTNESS
-1.5051 ERGO PROJECTOR DOWN
-1.5051 ERGO PROJECTOR FAST
-1.5051 ERGO PROJECTOR LEFT
-1.5051 ERGO PROJECTOR MUTE
-1.5051 ERGO PROJECTOR OKAY
-1.5051 ERGO PROJECTOR PLAY
-1.5051 ERGO PROJECTOR POWER
-1.5051 ERGO PROJECTOR REWIND
-1.5051 ERGO PROJECTOR RIGHT
-1.5051 ERGO PROJECTOR UP
-1.2041 ERGO PROJECTOR VOLUME
-1.5051 ERGO PROJECTOR ZOOM
-0.3010 FAST FORWARD </s>
-0.3010 PROJECTOR BACK </s>
-0.6021 PROJECTOR BRIGHTNESS DOWN
-0.6021 PROJECTOR BRIGHTNESS UP
-0.3010 PROJECTOR DOWN </s>
-0.3010 PROJECTOR FAST FORWARD
-0.3010 PROJECTOR LEFT </s>
-0.3010 PROJECTOR MUTE </s>
-0.3010 PROJECTOR OKAY </s>
-0.3010 PROJECTOR PLAY </s>
-0.3010 PROJECTOR POWER </s>
-0.3010 PROJECTOR REWIND </s>
-0.3010 PROJECTOR RIGHT </s>
-0.3010 PROJECTOR UP </s>
-0.6021 PROJECTOR VOLUME DOWN
-0.6021 PROJECTOR VOLUME UP
-0.3010 PROJECTOR ZOOM </s>
-0.3010 VOLUME DOWN </s>
-0.3010 VOLUME UP </s>

\end\
