Language model created by QuickLM on Mon Feb 27 09:35:25 EST 2017
Copyright (c) 1996-2010 Carnegie Mellon University and Alexander I. Rudnicky

The model is in standard ARPA format, designed by Doug Paul while he was at MITRE.

The code that was used to produce this language model is available in Open Source.
Please visit http://www.speech.cs.cmu.edu/tools/ for more information

The (fixed) discount mass is 0.5. The backoffs are computed using the ratio method.
This model based on a corpus of 5 sentences and 9 words

\data\
ngram 1=9
ngram 2=12
ngram 3=11

\1-grams:
-0.9823 </s> -0.3010
-0.9823 <s> -0.2533
-0.9823 ERGO -0.2533
-1.6812 EXIT -0.2533
-1.6812 LEFT -0.2533
-1.6812 OKAY -0.2533
-1.6812 POWER -0.2533
-1.0792 PROJECTOR -0.2632
-1.6812 RIGHT -0.2533

\2-grams:
-0.3010 <s> ERGO 0.0000
-1.0000 ERGO EXIT 0.0000
-0.3979 ERGO PROJECTOR 0.0000
-0.3010 EXIT </s> -0.3010
-0.3010 LEFT </s> -0.3010
-0.3010 OKAY </s> -0.3010
-0.3010 POWER </s> -0.3010
-0.9031 PROJECTOR LEFT 0.0000
-0.9031 PROJECTOR OKAY 0.0000
-0.9031 PROJECTOR POWER 0.0000
-0.9031 PROJECTOR RIGHT 0.0000
-0.3010 RIGHT </s> -0.3010

\3-grams:
-1.0000 <s> ERGO EXIT
-0.3979 <s> ERGO PROJECTOR
-0.3010 ERGO EXIT </s>
-0.9031 ERGO PROJECTOR LEFT
-0.9031 ERGO PROJECTOR OKAY
-0.9031 ERGO PROJECTOR POWER
-0.9031 ERGO PROJECTOR RIGHT
-0.3010 PROJECTOR LEFT </s>
-0.3010 PROJECTOR OKAY </s>
-0.3010 PROJECTOR POWER </s>
-0.3010 PROJECTOR RIGHT </s>

\end\
